<?xml version="1.0"?>
<opencv_storage>
<cascade>
  <stageType>BOOST</stageType>
  <featureType>HAAR</featureType>
  <height>20</height>
  <width>20</width>
  <stageParams>
    <boostType>GAB</boostType>
    <minHitRate>9.9500000476837158e-01</minHitRate>
    <maxFalseAlarm>1.0000000149011612e-01</maxFalseAlarm>
    <weightTrimRate>9.4999999999999996e-01</weightTrimRate>
    <maxDepth>1</maxDepth>
    <maxWeakCount>100</maxWeakCount></stageParams>
  <featureParams>
    <maxCatCount>0</maxCatCount>
    <featSize>1</featSize>
    <mode>ALL</mode></featureParams>
  <stageNum>10</stageNum>
  <stages>
    <!-- stage 0 -->
    <_>
      <maxWeakCount>4</maxWeakCount>
      <stageThreshold>-1.1170208454132080e-01</stageThreshold>
      <weakClassifiers>
        <_>
          <internalNodes>
            0 -1 25 -2.7507013082504272e-01</internalNodes>
          <leafValues>
            9.4074076414108276e-01 -8.6363637447357178e-01</leafValues></_>
        <_>
          <internalNodes>
            0 -1 78 -3.3627673983573914e-02</internalNodes>
          <leafValues>
            6.8453955650329590e-01 -9.0871924161911011e-01</leafValues></_>
        <_>
          <internalNodes>
            0 -1 5 -1.4264068007469177e-01</internalNodes>
          <leafValues>
            8.3828681707382202e-01 -7.2824299335479736e-01</leafValues></_>
        <_>
          <internalNodes>
            0 -1 56 2.7118191123008728e-02</internalNodes>
          <leafValues>
            -7.7089208364486694e-01 8.4620630741119385e-01</leafValues></_></weakClassifiers></_>
    <!-- stage 1 -->
    <_>
      <maxWeakCount>6</maxWeakCount>
      <stageThreshold>-6.4615553617477417e-01</stageThreshold>
      <weakClassifiers>
        <_>
          <internalNodes>
            0 -1 4 -1.4883869886398315e-01</internalNodes>
          <leafValues>
            9.5200002193450928e-01 -7.4647885560989380e-01</leafValues></_>
        <_>
          <internalNodes>
            0 -1 30 -7.6345652341842651e-02</internalNodes>
          <leafValues>
            7.6094210147857666e-01 -6.5660214424133301e-01</leafValues></_>
        <_>
          <internalNodes>
            0 -1 6 -7.8551799058914185e-02</internalNodes>
          <leafValues>
            8.6894631385803223e-01 -4.5670610666275024e-01</leafValues></_>
        <_>
          <internalNodes>
            0 -1 36 -1.9727980252355337e-03</internalNodes>
          <leafValues>
            5.1648306846618652e-01 -8.3701735734939575e-01</leafValues></_>
        <_>
          <internalNodes>
            0 -1 19 -1.0852674394845963e-01</internalNodes>
          <leafValues>
            8.0881279706954956e-01 -5.0919920206069946e-01</leafValues></_>
        <_>
          <internalNodes>
            0 -1 79 2.1257039159536362e-02</internalNodes>
          <leafValues>
            -4.9213117361068726e-01 7.7846372127532959e-01</leafValues></_></weakClassifiers></_>
    <!-- stage 2 -->
    <_>
      <maxWeakCount>8</maxWeakCount>
      <stageThreshold>-3.3453661203384399e-01</stageThreshold>
      <weakClassifiers>
        <_>
          <internalNodes>
            0 -1 66 -1.7679147422313690e-01</internalNodes>
          <leafValues>
            7.5000000000000000e-01 -6.7938929796218872e-01</leafValues></_>
        <_>
          <internalNodes>
            0 -1 72 -2.6575387455523014e-03</internalNodes>
          <leafValues>
            -8.6713850498199463e-01 4.1670089960098267e-01</leafValues></_>
        <_>
          <internalNodes>
            0 -1 0 -1.2703103944659233e-02</internalNodes>
          <leafValues>
            5.9398531913757324e-01 -5.6845778226852417e-01</leafValues></_>
        <_>
          <internalNodes>
            0 -1 15 -3.8647198677062988e-01</internalNodes>
          <leafValues>
            5.2354300022125244e-01 -5.7424229383468628e-01</leafValues></_>
        <_>
          <internalNodes>
            0 -1 34 2.8151579201221466e-02</internalNodes>
          <leafValues>
            -3.7688741087913513e-01 8.9845484495162964e-01</leafValues></_>
        <_>
          <internalNodes>
            0 -1 2 2.2369895596057177e-03</internalNodes>
          <leafValues>
            3.3942055702209473e-01 -9.3853241205215454e-01</leafValues></_>
        <_>
          <internalNodes>
            0 -1 9 -3.8662385195493698e-03</internalNodes>
          <leafValues>
            7.1721434593200684e-01 -4.8114499449729919e-01</leafValues></_>
        <_>
          <internalNodes>
            0 -1 24 -2.9797540046274662e-03</internalNodes>
          <leafValues>
            -8.1067144870758057e-01 4.2702063918113708e-01</leafValues></_></weakClassifiers></_>
    <!-- stage 3 -->
    <_>
      <maxWeakCount>10</maxWeakCount>
      <stageThreshold>-2.3257635533809662e-01</stageThreshold>
      <weakClassifiers>
        <_>
          <internalNodes>
            0 -1 55 8.0107124522328377e-03</internalNodes>
          <leafValues>
            -6.4912283420562744e-01 5.6862747669219971e-01</leafValues></_>
        <_>
          <internalNodes>
            0 -1 52 -5.9432070702314377e-02</internalNodes>
          <leafValues>
            5.0199323892593384e-01 -5.7088238000869751e-01</leafValues></_>
        <_>
          <internalNodes>
            0 -1 35 -9.4475690275430679e-03</internalNodes>
          <leafValues>
            6.7469215393066406e-01 -4.9785295128822327e-01</leafValues></_>
        <_>
          <internalNodes>
            0 -1 67 -2.9547857120633125e-03</internalNodes>
          <leafValues>
            4.8605033755302429e-01 -6.4183521270751953e-01</leafValues></_>
        <_>
          <internalNodes>
            0 -1 32 -2.0420784130692482e-03</internalNodes>
          <leafValues>
            -7.8507256507873535e-01 3.5319796204566956e-01</leafValues></_>
        <_>
          <internalNodes>
            0 -1 39 3.8164548575878143e-02</internalNodes>
          <leafValues>
            -4.7782447934150696e-01 6.6088676452636719e-01</leafValues></_>
        <_>
          <internalNodes>
            0 -1 80 -2.6935278438031673e-03</internalNodes>
          <leafValues>
            -8.4388142824172974e-01 3.4463077783584595e-01</leafValues></_>
        <_>
          <internalNodes>
            0 -1 16 3.4020029008388519e-02</internalNodes>
          <leafValues>
            -4.6239560842514038e-01 7.1228182315826416e-01</leafValues></_>
        <_>
          <internalNodes>
            0 -1 50 -1.1334892362356186e-02</internalNodes>
          <leafValues>
            9.7094851732254028e-01 -2.6121354103088379e-01</leafValues></_>
        <_>
          <internalNodes>
            0 -1 43 -1.0539620183408260e-02</internalNodes>
          <leafValues>
            4.2996069788932800e-01 -7.9410946369171143e-01</leafValues></_></weakClassifiers></_>
    <!-- stage 4 -->
    <_>
      <maxWeakCount>9</maxWeakCount>
      <stageThreshold>-1.1100017279386520e-01</stageThreshold>
      <weakClassifiers>
        <_>
          <internalNodes>
            0 -1 3 -1.1851531267166138e-01</internalNodes>
          <leafValues>
            5.0943398475646973e-01 -6.2962961196899414e-01</leafValues></_>
        <_>
          <internalNodes>
            0 -1 14 -9.9873170256614685e-02</internalNodes>
          <leafValues>
            3.9876827597618103e-01 -7.2410881519317627e-01</leafValues></_>
        <_>
          <internalNodes>
            0 -1 1 1.4241348952054977e-02</internalNodes>
          <leafValues>
            2.9984822869300842e-01 -8.5337233543395996e-01</leafValues></_>
        <_>
          <internalNodes>
            0 -1 74 7.2630401700735092e-03</internalNodes>
          <leafValues>
            -5.8329200744628906e-01 4.4686821103096008e-01</leafValues></_>
        <_>
          <internalNodes>
            0 -1 87 8.0190617591142654e-03</internalNodes>
          <leafValues>
            -4.5693501830101013e-01 6.6923731565475464e-01</leafValues></_>
        <_>
          <internalNodes>
            0 -1 31 -6.3576802611351013e-02</internalNodes>
          <leafValues>
            6.7659592628479004e-01 -4.1844305396080017e-01</leafValues></_>
        <_>
          <internalNodes>
            0 -1 37 1.4309667050838470e-02</internalNodes>
          <leafValues>
            3.8199922442436218e-01 -8.4296870231628418e-01</leafValues></_>
        <_>
          <internalNodes>
            0 -1 28 -1.4331281185150146e-02</internalNodes>
          <leafValues>
            7.7486115694046021e-01 -4.1981506347656250e-01</leafValues></_>
        <_>
          <internalNodes>
            0 -1 75 6.3362135551869869e-03</internalNodes>
          <leafValues>
            3.0049562454223633e-01 -8.7413829565048218e-01</leafValues></_></weakClassifiers></_>
    <!-- stage 5 -->
    <_>
      <maxWeakCount>10</maxWeakCount>
      <stageThreshold>7.8499808907508850e-02</stageThreshold>
      <weakClassifiers>
        <_>
          <internalNodes>
            0 -1 17 -3.8645938038825989e-02</internalNodes>
          <leafValues>
            5.4285717010498047e-01 -4.9606299400329590e-01</leafValues></_>
        <_>
          <internalNodes>
            0 -1 59 4.4900283217430115e-02</internalNodes>
          <leafValues>
            -6.4149391651153564e-01 3.9529570937156677e-01</leafValues></_>
        <_>
          <internalNodes>
            0 -1 57 -4.9967304803431034e-03</internalNodes>
          <leafValues>
            2.7407234907150269e-01 -8.0849403142929077e-01</leafValues></_>
        <_>
          <internalNodes>
            0 -1 51 -2.2841435857117176e-03</internalNodes>
          <leafValues>
            6.1827999353408813e-01 -4.0878626704216003e-01</leafValues></_>
        <_>
          <internalNodes>
            0 -1 7 -1.8196631222963333e-02</internalNodes>
          <leafValues>
            7.6669347286224365e-01 -3.1148290634155273e-01</leafValues></_>
        <_>
          <internalNodes>
            0 -1 81 1.8778676167130470e-02</internalNodes>
          <leafValues>
            2.9526484012603760e-01 -8.8981580734252930e-01</leafValues></_>
        <_>
          <internalNodes>
            0 -1 12 -4.7545274719595909e-03</internalNodes>
          <leafValues>
            2.4242311716079712e-01 -7.3533940315246582e-01</leafValues></_>
        <_>
          <internalNodes>
            0 -1 62 -8.3648459985852242e-03</internalNodes>
          <leafValues>
            7.2143584489822388e-01 -3.3708369731903076e-01</leafValues></_>
        <_>
          <internalNodes>
            0 -1 85 -5.7621987070888281e-04</internalNodes>
          <leafValues>
            -7.2763693332672119e-01 3.1018364429473877e-01</leafValues></_>
        <_>
          <internalNodes>
            0 -1 76 4.2574855615384877e-04</internalNodes>
          <leafValues>
            2.7269035577774048e-01 -8.2669073343276978e-01</leafValues></_></weakClassifiers></_>
    <!-- stage 6 -->
    <_>
      <maxWeakCount>11</maxWeakCount>
      <stageThreshold>-3.6249727010726929e-01</stageThreshold>
      <weakClassifiers>
        <_>
          <internalNodes>
            0 -1 77 -5.5974625051021576e-02</internalNodes>
          <leafValues>
            5.9398496150970459e-01 -4.9253731966018677e-01</leafValues></_>
        <_>
          <internalNodes>
            0 -1 23 4.0874793194234371e-03</internalNodes>
          <leafValues>
            3.0675283074378967e-01 -9.3626773357391357e-01</leafValues></_>
        <_>
          <internalNodes>
            0 -1 49 -9.2462664470076561e-03</internalNodes>
          <leafValues>
            -8.1580173969268799e-01 2.8227317333221436e-01</leafValues></_>
        <_>
          <internalNodes>
            0 -1 26 -1.3013223651796579e-03</internalNodes>
          <leafValues>
            2.7603849768638611e-01 -7.0400297641754150e-01</leafValues></_>
        <_>
          <internalNodes>
            0 -1 53 5.8733135461807251e-02</internalNodes>
          <leafValues>
            -5.0881803035736084e-01 4.8614630103111267e-01</leafValues></_>
        <_>
          <internalNodes>
            0 -1 73 -1.1408871039748192e-02</internalNodes>
          <leafValues>
            4.0044406056404114e-01 -5.6850039958953857e-01</leafValues></_>
        <_>
          <internalNodes>
            0 -1 58 -4.6289504098240286e-05</internalNodes>
          <leafValues>
            3.0408126115798950e-01 -6.7625278234481812e-01</leafValues></_>
        <_>
          <internalNodes>
            0 -1 86 6.6884225234389305e-03</internalNodes>
          <leafValues>
            2.1356758475303650e-01 -1.</leafValues></_>
        <_>
          <internalNodes>
            0 -1 20 -3.5248375497758389e-03</internalNodes>
          <leafValues>
            -9.1741693019866943e-01 1.7427542805671692e-01</leafValues></_>
        <_>
          <internalNodes>
            0 -1 47 4.4073872268199921e-03</internalNodes>
          <leafValues>
            3.0557954311370850e-01 -6.8197917938232422e-01</leafValues></_>
        <_>
          <internalNodes>
            0 -1 33 -6.9828609412070364e-05</internalNodes>
          <leafValues>
            3.3622115850448608e-01 -6.9986623525619507e-01</leafValues></_></weakClassifiers></_>
    <!-- stage 7 -->
    <_>
      <maxWeakCount>10</maxWeakCount>
      <stageThreshold>-6.2450337409973145e-01</stageThreshold>
      <weakClassifiers>
        <_>
          <internalNodes>
            0 -1 61 -1.8068909645080566e-02</internalNodes>
          <leafValues>
            4.5911949872970581e-01 -5.5555558204650879e-01</leafValues></_>
        <_>
          <internalNodes>
            0 -1 48 1.1724144220352173e-02</internalNodes>
          <leafValues>
            2.6788026094436646e-01 -8.4413045644760132e-01</leafValues></_>
        <_>
          <internalNodes>
            0 -1 13 -6.6725630313158035e-03</internalNodes>
          <leafValues>
            -7.1935749053955078e-01 2.8716179728507996e-01</leafValues></_>
        <_>
          <internalNodes>
            0 -1 27 4.4524874538183212e-03</internalNodes>
          <leafValues>
            2.3917894065380096e-01 -7.9914188385009766e-01</leafValues></_>
        <_>
          <internalNodes>
            0 -1 68 8.8963583111763000e-03</internalNodes>
          <leafValues>
            -5.9180104732513428e-01 3.1613531708717346e-01</leafValues></_>
        <_>
          <internalNodes>
            0 -1 10 -4.9358694814145565e-03</internalNodes>
          <leafValues>
            6.9617599248886108e-01 -3.2549729943275452e-01</leafValues></_>
        <_>
          <internalNodes>
            0 -1 65 1.2475175317376852e-03</internalNodes>
          <leafValues>
            3.0624458193778992e-01 -6.8954366445541382e-01</leafValues></_>
        <_>
          <internalNodes>
            0 -1 38 -7.8455889597535133e-03</internalNodes>
          <leafValues>
            8.0970448255538940e-01 -2.5984704494476318e-01</leafValues></_>
        <_>
          <internalNodes>
            0 -1 63 3.9912812411785126e-02</internalNodes>
          <leafValues>
            -6.9628560543060303e-01 3.5068565607070923e-01</leafValues></_>
        <_>
          <internalNodes>
            0 -1 82 -7.7990978024899960e-04</internalNodes>
          <leafValues>
            6.6035419702529907e-01 -3.4295368194580078e-01</leafValues></_></weakClassifiers></_>
    <!-- stage 8 -->
    <_>
      <maxWeakCount>10</maxWeakCount>
      <stageThreshold>-3.3365759253501892e-01</stageThreshold>
      <weakClassifiers>
        <_>
          <internalNodes>
            0 -1 8 -2.0597703754901886e-02</internalNodes>
          <leafValues>
            4.0571427345275879e-01 -6.3043481111526489e-01</leafValues></_>
        <_>
          <internalNodes>
            0 -1 54 -3.5402216017246246e-02</internalNodes>
          <leafValues>
            4.6978601813316345e-01 -5.9877306222915649e-01</leafValues></_>
        <_>
          <internalNodes>
            0 -1 29 -6.8052440881729126e-02</internalNodes>
          <leafValues>
            3.6156848073005676e-01 -5.9284693002700806e-01</leafValues></_>
        <_>
          <internalNodes>
            0 -1 84 1.4489647001028061e-02</internalNodes>
          <leafValues>
            2.8887215256690979e-01 -8.6315214633941650e-01</leafValues></_>
        <_>
          <internalNodes>
            0 -1 21 -9.2970244586467743e-03</internalNodes>
          <leafValues>
            -7.7263838052749634e-01 2.9398578405380249e-01</leafValues></_>
        <_>
          <internalNodes>
            0 -1 60 -9.1533865779638290e-03</internalNodes>
          <leafValues>
            -9.0111374855041504e-01 1.5803483128547668e-01</leafValues></_>
        <_>
          <internalNodes>
            0 -1 64 4.8622032627463341e-03</internalNodes>
          <leafValues>
            -3.7101662158966064e-01 5.7236891984939575e-01</leafValues></_>
        <_>
          <internalNodes>
            0 -1 69 -2.2357171401381493e-03</internalNodes>
          <leafValues>
            -7.9476183652877808e-01 2.4560569226741791e-01</leafValues></_>
        <_>
          <internalNodes>
            0 -1 18 -7.6571688987314701e-03</internalNodes>
          <leafValues>
            -8.2748997211456299e-01 2.5809380412101746e-01</leafValues></_>
        <_>
          <internalNodes>
            0 -1 40 4.9603264778852463e-03</internalNodes>
          <leafValues>
            -3.5675552487373352e-01 7.1403610706329346e-01</leafValues></_></weakClassifiers></_>
    <!-- stage 9 -->
    <_>
      <maxWeakCount>10</maxWeakCount>
      <stageThreshold>6.8324021995067596e-02</stageThreshold>
      <weakClassifiers>
        <_>
          <internalNodes>
            0 -1 46 -4.1449666023254395e-02</internalNodes>
          <leafValues>
            5.0000000000000000e-01 -6.2616825103759766e-01</leafValues></_>
        <_>
          <internalNodes>
            0 -1 41 8.2081176340579987e-02</internalNodes>
          <leafValues>
            -5.1841491460800171e-01 4.5694187283515930e-01</leafValues></_>
        <_>
          <internalNodes>
            0 -1 42 -6.0018897056579590e-02</internalNodes>
          <leafValues>
            4.9766758084297180e-01 -4.9579966068267822e-01</leafValues></_>
        <_>
          <internalNodes>
            0 -1 71 -1.1375397443771362e-03</internalNodes>
          <leafValues>
            -6.6591215133666992e-01 4.1299587488174438e-01</leafValues></_>
        <_>
          <internalNodes>
            0 -1 70 -7.0836668601259589e-04</internalNodes>
          <leafValues>
            -6.8804717063903809e-01 2.8050556778907776e-01</leafValues></_>
        <_>
          <internalNodes>
            0 -1 11 -1.1492201127111912e-02</internalNodes>
          <leafValues>
            7.2344255447387695e-01 -4.0466493368148804e-01</leafValues></_>
        <_>
          <internalNodes>
            0 -1 44 1.3518014457076788e-03</internalNodes>
          <leafValues>
            -5.5135220289230347e-01 4.7194185853004456e-01</leafValues></_>
        <_>
          <internalNodes>
            0 -1 22 -1.3893311843276024e-02</internalNodes>
          <leafValues>
            8.2877969741821289e-01 -3.3037284016609192e-01</leafValues></_>
        <_>
          <internalNodes>
            0 -1 45 -4.1324216872453690e-03</internalNodes>
          <leafValues>
            7.5229454040527344e-01 -3.0186918377876282e-01</leafValues></_>
        <_>
          <internalNodes>
            0 -1 83 7.7006943523883820e-02</internalNodes>
          <leafValues>
            -4.3478697538375854e-01 5.2600675821304321e-01</leafValues></_></weakClassifiers></_></stages>
  <features>
    <_>
      <rects>
        <_>
          0 0 8 19 -1.</_>
        <_>
          2 0 4 19 2.</_></rects>
      <tilted>0</tilted></_>
    <_>
      <rects>
        <_>
          0 0 6 20 -1.</_>
        <_>
          2 0 2 20 3.</_></rects>
      <tilted>0</tilted></_>
    <_>
      <rects>
        <_>
          0 0 3 2 -1.</_>
        <_>
          0 1 3 1 2.</_></rects>
      <tilted>0</tilted></_>
    <_>
      <rects>
        <_>
          0 0 12 20 -1.</_>
        <_>
          6 0 6 20 2.</_></rects>
      <tilted>0</tilted></_>
    <_>
      <rects>
        <_>
          0 1 20 18 -1.</_>
        <_>
          5 1 10 18 2.</_></rects>
      <tilted>0</tilted></_>
    <_>
      <rects>
        <_>
          0 1 20 19 -1.</_>
        <_>
          5 1 10 19 2.</_></rects>
      <tilted>0</tilted></_>
    <_>
      <rects>
        <_>
          0 1 14 11 -1.</_>
        <_>
          7 1 7 11 2.</_></rects>
      <tilted>0</tilted></_>
    <_>
      <rects>
        <_>
          0 5 4 12 -1.</_>
        <_>
          0 5 2 6 2.</_>
        <_>
          2 11 2 6 2.</_></rects>
      <tilted>0</tilted></_>
    <_>
      <rects>
        <_>
          0 6 6 14 -1.</_>
        <_>
          3 6 3 14 2.</_></rects>
      <tilted>0</tilted></_>
    <_>
      <rects>
        <_>
          0 7 3 7 -1.</_>
        <_>
          1 7 1 7 3.</_></rects>
      <tilted>0</tilted></_>
    <_>
      <rects>
        <_>
          0 9 3 4 -1.</_>
        <_>
          1 9 1 4 3.</_></rects>
      <tilted>0</tilted></_>
    <_>
      <rects>
        <_>
          0 12 19 3 -1.</_>
        <_>
          0 13 19 1 3.</_></rects>
      <tilted>0</tilted></_>
    <_>
      <rects>
        <_>
          1 0 8 11 -1.</_>
        <_>
          5 0 4 11 2.</_></rects>
      <tilted>0</tilted></_>
    <_>
      <rects>
        <_>
          1 0 14 2 -1.</_>
        <_>
          8 0 7 2 2.</_></rects>
      <tilted>0</tilted></_>
    <_>
      <rects>
        <_>
          1 0 13 12 -1.</_>
        <_>
          1 6 13 6 2.</_></rects>
      <tilted>0</tilted></_>
    <_>
      <rects>
        <_>
          1 0 19 18 -1.</_>
        <_>
          1 9 19 9 2.</_></rects>
      <tilted>0</tilted></_>
    <_>
      <rects>
        <_>
          1 2 8 12 -1.</_>
        <_>
          1 2 4 6 2.</_>
        <_>
          5 8 4 6 2.</_></rects>
      <tilted>0</tilted></_>
    <_>
      <rects>
        <_>
          1 4 18 4 -1.</_>
        <_>
          1 6 18 2 2.</_></rects>
      <tilted>0</tilted></_>
    <_>
      <rects>
        <_>
          1 7 4 4 -1.</_>
        <_>
          1 8 4 2 2.</_></rects>
      <tilted>0</tilted></_>
    <_>
      <rects>
        <_>
          1 12 17 8 -1.</_>
        <_>
          1 14 17 4 2.</_></rects>
      <tilted>0</tilted></_>
    <_>
      <rects>
        <_>
          2 1 3 1 -1.</_>
        <_>
          3 2 1 1 3.</_></rects>
      <tilted>1</tilted></_>
    <_>
      <rects>
        <_>
          2 1 18 4 -1.</_>
        <_>
          2 1 9 2 2.</_>
        <_>
          11 3 9 2 2.</_></rects>
      <tilted>0</tilted></_>
    <_>
      <rects>
        <_>
          2 15 18 3 -1.</_>
        <_>
          2 16 18 1 3.</_></rects>
      <tilted>0</tilted></_>
    <_>
      <rects>
        <_>
          3 0 4 3 -1.</_>
        <_>
          4 0 2 3 2.</_></rects>
      <tilted>0</tilted></_>
    <_>
      <rects>
        <_>
          3 0 5 4 -1.</_>
        <_>
          3 1 5 2 2.</_></rects>
      <tilted>0</tilted></_>
    <_>
      <rects>
        <_>
          3 0 17 16 -1.</_>
        <_>
          3 8 17 8 2.</_></rects>
      <tilted>0</tilted></_>
    <_>
      <rects>
        <_>
          3 10 4 10 -1.</_>
        <_>
          3 10 2 5 2.</_>
        <_>
          5 15 2 5 2.</_></rects>
      <tilted>0</tilted></_>
    <_>
      <rects>
        <_>
          3 16 6 2 -1.</_>
        <_>
          5 16 2 2 3.</_></rects>
      <tilted>0</tilted></_>
    <_>
      <rects>
        <_>
          3 18 16 1 -1.</_>
        <_>
          7 18 8 1 2.</_></rects>
      <tilted>0</tilted></_>
    <_>
      <rects>
        <_>
          4 9 14 8 -1.</_>
        <_>
          4 13 14 4 2.</_></rects>
      <tilted>0</tilted></_>
    <_>
      <rects>
        <_>
          5 0 8 10 -1.</_>
        <_>
          5 5 8 5 2.</_></rects>
      <tilted>0</tilted></_>
    <_>
      <rects>
        <_>
          5 2 11 8 -1.</_>
        <_>
          5 4 11 4 2.</_></rects>
      <tilted>0</tilted></_>
    <_>
      <rects>
        <_>
          5 14 9 1 -1.</_>
        <_>
          8 14 3 1 3.</_></rects>
      <tilted>0</tilted></_>
    <_>
      <rects>
        <_>
          5 15 8 5 -1.</_>
        <_>
          7 15 4 5 2.</_></rects>
      <tilted>0</tilted></_>
    <_>
      <rects>
        <_>
          5 18 13 2 -1.</_>
        <_>
          5 19 13 1 2.</_></rects>
      <tilted>0</tilted></_>
    <_>
      <rects>
        <_>
          6 10 1 6 -1.</_>
        <_>
          4 12 1 2 3.</_></rects>
      <tilted>1</tilted></_>
    <_>
      <rects>
        <_>
          6 10 6 4 -1.</_>
        <_>
          5 11 6 2 2.</_></rects>
      <tilted>1</tilted></_>
    <_>
      <rects>
        <_>
          6 11 6 7 -1.</_>
        <_>
          8 11 2 7 3.</_></rects>
      <tilted>0</tilted></_>
    <_>
      <rects>
        <_>
          6 15 1 4 -1.</_>
        <_>
          5 16 1 2 2.</_></rects>
      <tilted>1</tilted></_>
    <_>
      <rects>
        <_>
          7 8 6 5 -1.</_>
        <_>
          7 8 3 5 2.</_></rects>
      <tilted>1</tilted></_>
    <_>
      <rects>
        <_>
          7 8 12 2 -1.</_>
        <_>
          7 8 6 1 2.</_>
        <_>
          13 9 6 1 2.</_></rects>
      <tilted>0</tilted></_>
    <_>
      <rects>
        <_>
          8 3 12 5 -1.</_>
        <_>
          8 3 6 5 2.</_></rects>
      <tilted>1</tilted></_>
    <_>
      <rects>
        <_>
          8 3 12 12 -1.</_>
        <_>
          8 3 6 6 2.</_>
        <_>
          14 9 6 6 2.</_></rects>
      <tilted>0</tilted></_>
    <_>
      <rects>
        <_>
          8 5 12 14 -1.</_>
        <_>
          11 5 6 14 2.</_></rects>
      <tilted>0</tilted></_>
    <_>
      <rects>
        <_>
          8 8 6 3 -1.</_>
        <_>
          7 9 6 1 3.</_></rects>
      <tilted>1</tilted></_>
    <_>
      <rects>
        <_>
          8 11 6 3 -1.</_>
        <_>
          8 12 6 1 3.</_></rects>
      <tilted>0</tilted></_>
    <_>
      <rects>
        <_>
          8 11 10 9 -1.</_>
        <_>
          8 14 10 3 3.</_></rects>
      <tilted>0</tilted></_>
    <_>
      <rects>
        <_>
          8 15 10 3 -1.</_>
        <_>
          13 15 5 3 2.</_></rects>
      <tilted>0</tilted></_>
    <_>
      <rects>
        <_>
          9 0 4 18 -1.</_>
        <_>
          9 0 2 9 2.</_>
        <_>
          11 9 2 9 2.</_></rects>
      <tilted>0</tilted></_>
    <_>
      <rects>
        <_>
          9 0 9 3 -1.</_>
        <_>
          12 0 3 3 3.</_></rects>
      <tilted>0</tilted></_>
    <_>
      <rects>
        <_>
          9 7 5 4 -1.</_>
        <_>
          9 8 5 2 2.</_></rects>
      <tilted>0</tilted></_>
    <_>
      <rects>
        <_>
          9 8 3 3 -1.</_>
        <_>
          9 9 3 1 3.</_></rects>
      <tilted>0</tilted></_>
    <_>
      <rects>
        <_>
          10 0 4 10 -1.</_>
        <_>
          10 5 4 5 2.</_></rects>
      <tilted>0</tilted></_>
    <_>
      <rects>
        <_>
          10 0 10 11 -1.</_>
        <_>
          15 0 5 11 2.</_></rects>
      <tilted>0</tilted></_>
    <_>
      <rects>
        <_>
          10 0 7 6 -1.</_>
        <_>
          8 2 7 2 3.</_></rects>
      <tilted>1</tilted></_>
    <_>
      <rects>
        <_>
          10 5 3 8 -1.</_>
        <_>
          8 7 3 4 2.</_></rects>
      <tilted>1</tilted></_>
    <_>
      <rects>
        <_>
          10 8 8 3 -1.</_>
        <_>
          10 8 4 3 2.</_></rects>
      <tilted>1</tilted></_>
    <_>
      <rects>
        <_>
          10 10 1 9 -1.</_>
        <_>
          7 13 1 3 3.</_></rects>
      <tilted>1</tilted></_>
    <_>
      <rects>
        <_>
          10 11 6 3 -1.</_>
        <_>
          12 13 2 3 3.</_></rects>
      <tilted>1</tilted></_>
    <_>
      <rects>
        <_>
          11 2 8 18 -1.</_>
        <_>
          15 2 4 18 2.</_></rects>
      <tilted>0</tilted></_>
    <_>
      <rects>
        <_>
          12 0 8 1 -1.</_>
        <_>
          12 0 4 1 2.</_></rects>
      <tilted>1</tilted></_>
    <_>
      <rects>
        <_>
          12 2 6 16 -1.</_>
        <_>
          12 2 3 8 2.</_>
        <_>
          15 10 3 8 2.</_></rects>
      <tilted>0</tilted></_>
    <_>
      <rects>
        <_>
          12 3 3 9 -1.</_>
        <_>
          13 3 1 9 3.</_></rects>
      <tilted>0</tilted></_>
    <_>
      <rects>
        <_>
          12 4 8 16 -1.</_>
        <_>
          16 4 4 16 2.</_></rects>
      <tilted>0</tilted></_>
    <_>
      <rects>
        <_>
          12 5 6 1 -1.</_>
        <_>
          14 7 2 1 3.</_></rects>
      <tilted>1</tilted></_>
    <_>
      <rects>
        <_>
          12 13 4 2 -1.</_>
        <_>
          14 13 2 2 2.</_></rects>
      <tilted>0</tilted></_>
    <_>
      <rects>
        <_>
          13 0 7 18 -1.</_>
        <_>
          13 9 7 9 2.</_></rects>
      <tilted>0</tilted></_>
    <_>
      <rects>
        <_>
          13 5 2 12 -1.</_>
        <_>
          13 5 1 6 2.</_>
        <_>
          14 11 1 6 2.</_></rects>
      <tilted>0</tilted></_>
    <_>
      <rects>
        <_>
          13 9 4 5 -1.</_>
        <_>
          13 9 2 5 2.</_></rects>
      <tilted>1</tilted></_>
    <_>
      <rects>
        <_>
          13 12 3 2 -1.</_>
        <_>
          13 12 3 1 2.</_></rects>
      <tilted>1</tilted></_>
    <_>
      <rects>
        <_>
          13 16 2 4 -1.</_>
        <_>
          13 16 1 2 2.</_>
        <_>
          14 18 1 2 2.</_></rects>
      <tilted>0</tilted></_>
    <_>
      <rects>
        <_>
          14 1 2 1 -1.</_>
        <_>
          14 1 1 1 2.</_></rects>
      <tilted>1</tilted></_>
    <_>
      <rects>
        <_>
          14 5 6 3 -1.</_>
        <_>
          16 7 2 3 3.</_></rects>
      <tilted>1</tilted></_>
    <_>
      <rects>
        <_>
          14 6 6 13 -1.</_>
        <_>
          16 6 2 13 3.</_></rects>
      <tilted>0</tilted></_>
    <_>
      <rects>
        <_>
          14 7 4 3 -1.</_>
        <_>
          15 8 2 3 2.</_></rects>
      <tilted>1</tilted></_>
    <_>
      <rects>
        <_>
          14 10 3 3 -1.</_>
        <_>
          13 11 3 1 3.</_></rects>
      <tilted>1</tilted></_>
    <_>
      <rects>
        <_>
          14 15 1 2 -1.</_>
        <_>
          14 16 1 1 2.</_></rects>
      <tilted>0</tilted></_>
    <_>
      <rects>
        <_>
          15 8 4 12 -1.</_>
        <_>
          15 12 4 4 3.</_></rects>
      <tilted>0</tilted></_>
    <_>
      <rects>
        <_>
          16 0 3 16 -1.</_>
        <_>
          16 8 3 8 2.</_></rects>
      <tilted>0</tilted></_>
    <_>
      <rects>
        <_>
          16 2 4 18 -1.</_>
        <_>
          18 2 2 18 2.</_></rects>
      <tilted>0</tilted></_>
    <_>
      <rects>
        <_>
          16 2 3 3 -1.</_>
        <_>
          16 3 3 1 3.</_></rects>
      <tilted>0</tilted></_>
    <_>
      <rects>
        <_>
          16 4 2 14 -1.</_>
        <_>
          16 4 1 14 2.</_></rects>
      <tilted>1</tilted></_>
    <_>
      <rects>
        <_>
          16 14 4 3 -1.</_>
        <_>
          18 14 2 3 2.</_></rects>
      <tilted>0</tilted></_>
    <_>
      <rects>
        <_>
          17 2 3 12 -1.</_>
        <_>
          17 2 3 6 2.</_></rects>
      <tilted>1</tilted></_>
    <_>
      <rects>
        <_>
          17 7 3 8 -1.</_>
        <_>
          17 9 3 4 2.</_></rects>
      <tilted>0</tilted></_>
    <_>
      <rects>
        <_>
          18 0 2 2 -1.</_>
        <_>
          19 0 1 2 2.</_></rects>
      <tilted>0</tilted></_>
    <_>
      <rects>
        <_>
          18 0 2 6 -1.</_>
        <_>
          18 3 2 3 2.</_></rects>
      <tilted>0</tilted></_>
    <_>
      <rects>
        <_>
          18 6 2 13 -1.</_>
        <_>
          19 6 1 13 2.</_></rects>
      <tilted>0</tilted></_></features></cascade>
</opencv_storage>
